Language model created by QuickLM on Wed May 19 19:02:36 EDT 2021
Copyright (c) 1996-2010 Carnegie Mellon University and Alexander I. Rudnicky

The model is in standard ARPA format, designed by Doug Paul while he was at MITRE.

The code that was used to produce this language model is available in Open Source.
Please visit http://www.speech.cs.cmu.edu/tools/ for more information

The (fixed) discount mass is 0.5. The backoffs are computed using the ratio method.
This model based on a corpus of 3 sentences and 7 words

\data\
ngram 1=7
ngram 2=8
ngram 3=5

\1-grams:
-0.8653 </s> -0.3010
-0.8653 <s> -0.2374
-1.3424 ARE -0.2808
-1.3424 HI -0.2374
-1.3424 HOW -0.2808
-1.3424 WEATHER -0.2374
-1.3424 YOU -0.2374

\2-grams:
-0.7782 <s> HI 0.0000
-0.7782 <s> HOW 0.0000
-0.7782 <s> WEATHER 0.0000
-0.3010 ARE YOU 0.0000
-0.3010 HI </s> -0.3010
-0.3010 HOW ARE 0.0000
-0.3010 WEATHER </s> -0.3010
-0.3010 YOU </s> -0.3010

\3-grams:
-0.3010 <s> HI </s>
-0.3010 <s> HOW ARE
-0.3010 <s> WEATHER </s>
-0.3010 ARE YOU </s>
-0.3010 HOW ARE YOU

\end\